
\data\
ngram 1=102
ngram 2=229
ngram 3=87
ngram 4=63
ngram 5=45
ngram 6=24
ngram 7=13
ngram 8=8
ngram 9=4
ngram 10=4

\1-grams:
-0.7032071	</s>
-99	<s>	-0.3325742
-2.410777	กลาง	-0.2120036
-2.711807	การ	-0.3123065
-2.711807	ขยาย	-0.3114608
-2.234686	ขอ	-0.7860348
-2.012837	ของ	-1.108951
-2.410777	ความยาว	-0.2941903
-1.535716	ความเร็ว	-1.177158
-2.711807	คั้งค่า	-0.3054939
-2.234686	คุณภาพ	-0.8766787
-2.410777	ค้นหา	-0.3812641
-2.410777	จาก	-0.2933085
-2.711807	จำ	-0.3054939
-1.711807	จุด	-1.02152
-2.109747	ฉัน	-0.565324
-2.234686	ชื่อ	-0.2933085
-2.012837	ตอน	-0.4691486
-2.109747	ตั้ง	-0.6955837
-2.109747	ตั้งค่า	-0.6913133
-2.410777	ตาล	-0.3812641
-2.711807	ต่อ	-0.3114608
-2.711807	ต่อไป	-0.2172934
-2.711807	ต่ำ	-0.2172934
-2.711807	ทรี	-0.2172934
-2.234686	ทอป	-0.3106133
-1.933656	ที่	-0.4631764
-2.711807	ที่แล้ว	-0.2172934
-2.711807	ทู	-0.2172934
-2.234686	นาที	-0.7989018
-2.109747	นาม	-0.3063513
-2.410777	บี	-0.3812641
-2.234686	ปรับ	-0.8922217
-2.109747	ปิด	-0.2834885
-2.234686	ผม	-0.3080612
-2.711807	ผู้	-0.3123065
-2.711807	ผ่าน	-0.3123065
-2.711807	พอส	-0.2861888
-2.410777	ฟร้องซ์	-0.3812641
-2.711807	ยี่	-0.3054939
-2.711807	ย่อ	-0.3114608
-1.933656	ย้อน	-0.8181362
-2.234686	ระดับ	-0.3097643
-2.410777	รายการ	-0.4754314
-2.711807	ร้อย	-0.3089136
-1.933656	ลด	-0.1286015
-2.410777	ลูป	-0.3812641
-2.012837	ล็อกอิน	-1.007884
-2.711807	ล็อกเอาท์	-0.2172934
-2.711807	วัน	-0.2172934
-1.389588	วิดีโอ	-0.3880956
-1.757565	วินาที	-0.9041429
-2.234686	วีดิโอ	-0.8896695
-1.220446	วีดีโอ	-1.399492
-1.711807	ศูนย์	-0.9966698
-1.711807	สอง	-0.658398
-1.866709	สาม	-0.6002254
-2.711807	สิ	-0.3080612
-1.757565	สิบ	-1.239533
-2.012837	สี่	-1.015461
-2.711807	สูง	-0.2172934
-2.711807	หก	-0.2172934
-2.711807	หนัง	-0.3123065
-1.565679	หนึ่ง	-0.3285373
-2.711807	หน่อย	-0.3123065
-2.410777	หน้า	-0.3106133
-2.410777	หน้าจอ	-0.3812641
-1.711807	หมายเลข	-0.9932863
-2.711807	หยุด	-0.2861888
-1.456535	ห้า	-0.5326468
-2.711807	ออก	-0.3114608
-2.711807	อะไร	-0.2172934
-2.234686	อันดับ	-0.2861888
-2.711807	อัพโหลด	-0.2861888
-2.711807	เก้า	-0.2172934
-2.410777	เข้า	-0.4754314
-2.234686	เจ็ด	-0.1879307
-2.012837	เซ็ต	-0.1100195
-2.711807	เดิม	-0.2172934
-1.866709	เท่า	-0.2126361
-2.711807	เท่าไหร่	-0.2172934
-2.012837	เปอร์เซนต์	-0.02699953
-1.866709	เปิด	-0.1607582
-2.109747	เป็น	-0.6434473
-1.933656	เพิ่ม	-0.1286015
-2.012837	เลือก	-0.1047764
-2.012837	เลื่อน	-0.09589483
-1.757565	เล่น	-0.7676352
-2.711807	เวลา	-0.3046347
-1.757565	เสียง	-0.4363996
-2.711807	เอา	-0.3123065
-2.410777	แตงไทย	-0.3812641
-2.711807	แนะนำ	-0.3123065
-2.711807	แปด	-0.2172934
-1.933656	แสดง	-0.7141607
-1.933656	โกวาจี	-0.7360995
-2.410777	โปรด	-0.3812641
-2.410777	โปรแกรม	-0.3812641
-1.933656	โหมด	-0.139088
-2.711807	โฮมเพจ	-0.2172934
-2.410777	ใน	-0.4728842
-1.670415	ไป	-1.41654

\2-grams:
-2.297839	<s> ขยาย
-1.590674	<s> ขอ	0.2037221
-2.297839	<s> คั้งค่า
-1.40654	<s> ตั้ง	0
-1.40654	<s> ตั้งค่า	0
-1.590674	<s> ปรับ	0.5083463
-1.40654	<s> ปิด
-2.297839	<s> พอส
-2.297839	<s> ย่อ
-1.230449	<s> ย้อน	0
-1.230449	<s> ลด	0.05487969
-1.917997	<s> ล็อกอิน	0
-2.297839	<s> ล็อกเอาท์
-1.70757	<s> วิดีโอ
-2.297839	<s> สอง
-2.297839	<s> สาม
-2.297839	<s> สี่
-2.297839	<s> หก
-2.297839	<s> หนึ่ง
-2.297839	<s> หยุด
-2.297839	<s> ห้า
-2.297839	<s> เก้า
-1.70757	<s> เข้า	-0.04681936
-2.297839	<s> เจ็ด
-1.917997	<s> เซ็ต	0.06835053
-1.457195	<s> เปิด	0.04584857
-1.230449	<s> เพิ่ม	0.05487969
-1.917997	<s> เลือก	0.06835053
-1.917997	<s> เลื่อน	0.06835053
-1.054358	<s> เล่น	0.26935
-2.297839	<s> เอา
-2.297839	<s> แนะนำ
-2.297839	<s> แปด
-1.40654	<s> แสดง	-0.004367933
-1.917997	<s> โกวาจี	0.05948251
-0.5902685	กลาง </s>
-0.5902685	กลาง ตอน
-0.2892385	การ จำ
-0.2892385	ขยาย หน้าจอ
-0.7663597	ขอ ความยาว
-0.1760913	ขอ ชื่อ
-0.281044	ของ ฉัน	0.07505658
-0.39794	ของ ตอน	-0.2019603
-0.5902685	ความยาว วิดีโอ
-0.5902685	ความยาว เท่าไหร่
-0.02802872	ความเร็ว วีดีโอ	-0.8083948
-0.2892385	คั้งค่า เสียง
-0.05919524	คุณภาพ วิดีโอ	-0.3285924
-0.1760913	ค้นหา </s>
-0.5902685	จาก รายการ
-0.5902685	จาก วิดีโอ
-0.2892385	จำ เสียง
-0.582074	จุด สอง	-0.2546023
-0.69897	จุด หนึ่ง	-0.3965284
-0.39794	จุด ห้า	-0.2873838
-1.289238	จุด เจ็ด	0
-0.184134	ฉัน </s>
-0.8912985	ฉัน แตงไทย
-0.7663597	ชื่อ ผู้
-0.7663597	ชื่อ วิดีโอ
-0.7663597	ชื่อ อะไร
-0.281044	ตอน </s>
-0.9882085	ตอน ต่อไป
-0.9882085	ตอน ที่แล้ว
-0.09691001	ตั้ง เป็น	0.2081575
-0.09691001	ตั้งค่า เสียง
-0.1760913	ตาล </s>
-0.2892385	ต่อ จาก
-0.2892385	ต่อไป </s>
-0.2892385	ต่ำ </s>
-0.2892385	ทรี </s>
-0.7663597	ทอป ทรี
-0.7663597	ทอป ทู
-0.7663597	ทอป วัน
-1.06739	ที่ กลาง
-1.06739	ที่ สาม	0
-1.06739	ที่ หนึ่ง	0
-1.06739	ที่ เวลา
-0.4771213	ที่ แสดง	-0.3478494
-0.2892385	ที่แล้ว </s>
-0.2892385	ทู </s>
-0.05919524	นาที </s>
-0.8912985	นาม ตาล
-0.8912985	นาม บี
-0.8912985	นาม ฟร้องซ์
-0.8912985	นาม แตงไทย
-0.1760913	บี </s>
-0.05919524	ปรับ คุณภาพ	0.5083463
-0.8912985	ปิด ลูป
-0.8912985	ปิด วิดีโอ
-0.8912985	ปิด เสียง
-0.8912985	ปิด โปรแกรม
-0.7663597	ผม ตาล
-0.7663597	ผม บี
-0.7663597	ผม ฟร้องซ์
-0.2892385	ผู้ อัพโหลด
-0.2892385	ผ่าน การ
-0.2892385	พอส วีดีโอ
-0.1760913	ฟร้องซ์ </s>
-0.2892385	ยี่ สิบ
-0.2892385	ย่อ หน้าจอ
-0.06694679	ย้อน วีดีโอ	-0.6547663
-0.7663597	ระดับ กลาง
-0.7663597	ระดับ ต่ำ
-0.7663597	ระดับ สูง
-0.1760913	รายการ โปรด	-0.04681936
-0.2892385	ร้อย เปอร์เซนต์
-0.6875479	ลด ความเร็ว	1.149614
-1.06739	ลด เสียง
-0.1760913	ลูป </s>
-0.09691001	ล็อกอิน นาม
-0.9882085	ล็อกอิน ผ่าน
-0.2892385	ล็อกเอาท์ </s>
-0.2892385	วัน </s>
-1.021189	วิดีโอ </s>
-1.611458	วิดีโอ ความยาว
-1.611458	วิดีโอ ชื่อ
-0.9042933	วิดีโอ ทอป
-1.021189	วิดีโอ ที่	-0.3478494
-0.9042933	วิดีโอ ระดับ
-1.231616	วิดีโอ หมายเลข
-0.9042933	วิดีโอ อันดับ
-1.611458	วิดีโอ เดิม
-0.04575749	วินาที </s>
-0.05919524	วีดิโอ ที่	0
-0.8893017	วีดีโอ </s>
-1.7806	วีดีโอ ที่
-0.5882717	วีดีโอ ศูนย์	-0.2552725
-1.073436	วีดีโอ สอง	-0.2546023
-0.8893017	วีดีโอ หนึ่ง	-0.3041739
-0.449969	วีดีโอ ไป	0.8031272
-0.09691001	ศูนย์ จุด	0.4915307
-1.289238	ศูนย์ นาที
-1.289238	ศูนย์ เปอร์เซนต์
-0.582074	สอง </s>
-1.289238	สอง ของ
-0.582074	สอง ห้า	-0.1777049
-0.582074	สอง เท่า	-0.07791948
-0.427172	สาม </s>
-1.134336	สาม ของ
-0.544068	สาม สิบ	-0.2686681
-1.134336	สาม ใน	0
-0.2892385	สิ โกวาจี
-0.3521825	สิบ วินาที	0.30103
-0.3521825	สิบ ห้า	-0.3478493
-1.243481	สิบ เปอร์เซนต์
-0.281044	สี่ </s>
-0.39794	สี่ ของ	-0.3020919
-0.2892385	สูง </s>
-0.2892385	หก </s>
-0.2892385	หนัง หน่อย
-0.5947228	หนึ่ง </s>
-1.435367	หนึ่ง ของ
-0.845098	หนึ่ง จุด	0
-0.845098	หนึ่ง นาที	0.3708184
-1.435367	หนึ่ง วินาที
-1.435367	หนึ่ง ใน	0
-0.2892385	หน่อย สิ
-0.5902685	หน้า ค้นหา
-0.5902685	หน้า โฮมเพจ
-0.1760913	หน้าจอ </s>
-0.7403627	หมายเลข สอง	-0.3921301
-0.7403627	หมายเลข สาม	-0.320541
-0.7403627	หมายเลข สี่	-0.2019603
-0.7403627	หมายเลข หนึ่ง	-0.3965284
-0.7403627	หมายเลข ห้า	-0.4282463
-0.2892385	หยุด วีดีโอ
-0.7038673	ห้า </s>
-0.6532125	ห้า วินาที	0.30103
-1.544511	ห้า สิบ
-0.6532125	ห้า เท่า	-0.3904768
-0.9542425	ห้า เปอร์เซนต์	-0.4010839
-0.2892385	ออก จาก
-0.2892385	อะไร </s>
-0.7663597	อันดับ สอง
-0.7663597	อันดับ สาม
-0.7663597	อันดับ หนึ่ง
-0.2892385	อัพโหลด วีดีโอ
-0.2892385	เก้า </s>
-0.1760913	เข้า หน้า
-0.7663597	เจ็ด </s>
-0.7663597	เจ็ด สิบ
-0.7663597	เจ็ด ห้า	0
-0.6083667	เซ็ต ความเร็ว	1.149614
-0.2892385	เดิม </s>
-0.2936928	เท่า </s>
-0.2892385	เท่าไหร่ </s>
-0.6083667	เปอร์เซนต์ </s>
-1.134336	เปิด ลูป
-1.134336	เปิด โปรแกรม
-0.7544947	เปิด โหมด	0.04530693
-0.8912985	เป็น รายการ
-0.184134	เป็น วิดีโอ	-0.3285924
-0.6875479	เพิ่ม ความเร็ว	1.149614
-1.06739	เพิ่ม เสียง
-0.6083667	เลือก วิดีโอ	-0.02825007
-0.6083667	เลื่อน วีดีโอ	0.1358255
-0.6532125	เล่น ตอน
-1.243481	เล่น ต่อ
-1.243481	เล่น วิดีโอ
-0.5363165	เล่น วีดิโอ	0.5083463
-0.6532125	เล่น วีดีโอ
-0.2892385	เวลา ศูนย์
-0.3521825	เสียง </s>
-1.243481	เสียง ยี่
-1.243481	เสียง ร้อย
-1.243481	เสียง ศูนย์
-1.243481	เสียง ห้า
-1.243481	เสียง เจ็ด
-0.2892385	เอา ออก
-0.1760913	แตงไทย </s>
-0.2892385	แนะนำ หนัง
-0.2892385	แปด </s>
-0.4771213	แสดง </s>
-0.3602252	แสดง วิดีโอ	-0.3285924
-1.06739	แสดง โหมด
-0.4771213	โกวาจี </s>
-1.06739	โกวาจี ฉัน
-0.3602252	โกวาจี ผม
-0.1760913	โปรด </s>
-0.1760913	โปรแกรม </s>
-1.06739	โหมด ค้นหา
-0.6875479	โหมด หมายเลข
-0.2892385	โฮมเพจ </s>
-0.1760913	ใน สี่	-0.3020919
-0.7403627	ไป สาม	-0.3778126
-0.4393327	ไป สิบ	0.430302
-0.6234667	ไป หนึ่ง	-0.2064524
-0.7403627	ไป ห้า	-0.4147961

\3-grams:
-0.3305389	<s> ขอ ชื่อ
-0.1544477	สี่ ของ ตอน	0.1975943
-0.9283068	ลด ความเร็ว วีดีโอ	-0.0669468
-0.9283068	เซ็ต ความเร็ว วีดีโอ	0.4604087
-0.9283068	เพิ่ม ความเร็ว วีดีโอ	-0.0669468
-0.2297072	ปรับ คุณภาพ วิดีโอ	-0.2156473
-0.7565077	ศูนย์ จุด สอง	0.0600664
-0.7565077	ศูนย์ จุด หนึ่ง	0.1975943
-0.6556759	ศูนย์ จุด ห้า	-0.001233533
-0.7977077	ศูนย์ จุด เจ็ด	0
-0.582074	หนึ่ง จุด สอง	0
-0.2297072	ของ ฉัน </s>
-0.1544477	ของ ตอน </s>
-0.09691001	<s> ตั้ง เป็น	-0.3487482
-0.09691001	<s> ตั้งค่า เสียง
-0.1544477	วิดีโอ ที่ แสดง	0.1975943
-1.06739	วีดิโอ ที่ สาม	0
-1.06739	วีดิโอ ที่ หนึ่ง	0
-0.1544477	หนึ่ง นาที </s>
-0.2297072	<s> ปรับ คุณภาพ	-0.2156473
-0.06694679	<s> ย้อน วีดีโอ	0
-1.007488	<s> ลด ความเร็ว	-0.02196269
-0.09691001	<s> ล็อกอิน นาม
-0.2297072	คุณภาพ วิดีโอ ระดับ
-0.2297072	เป็น วิดีโอ ทอป
-0.9283068	เลือก วิดีโอ หมายเลข
-0.2297072	แสดง วิดีโอ อันดับ
-0.09691001	สิบ วินาที </s>
-0.09691001	ห้า วินาที </s>
-0.2297072	เล่น วีดิโอ ที่	0
-0.2730013	ความเร็ว วีดีโอ ศูนย์	0
-0.9286772	ความเร็ว วีดีโอ สอง	-0.2156473
-0.5740313	ความเร็ว วีดีโอ หนึ่ง	0.1975942
-0.06694679	ย้อน วีดีโอ ไป	0.1341369
-0.9283068	เลื่อน วีดีโอ ไป	0.09319257
-0.05115252	วีดีโอ ศูนย์ จุด	-0.07480273
-0.2297072	จุด สอง ห้า	0.08483419
-0.2297072	วีดีโอ สอง เท่า	-0.2156473
-0.1544477	หมายเลข สอง </s>
-1.134336	ที่ สาม ใน	0
-0.1544477	หมายเลข สาม </s>
-0.1544477	ไป สาม สิบ	0.1975943
-0.1544477	สาม สิบ วินาที	0.3726237
-0.4554777	ไป สิบ วินาที	0.3726237
-0.4554777	ไป สิบ ห้า	-0.1390149
-0.1544477	หมายเลข สี่ </s>
-0.1544477	ใน สี่ ของ	0.1975943
-0.1544477	จุด หนึ่ง </s>
-1.435367	ที่ หนึ่ง ใน	0
-0.4554777	วีดีโอ หนึ่ง </s>
-0.4554777	วีดีโอ หนึ่ง จุด	0
-0.1544477	หมายเลข หนึ่ง </s>
-0.3305389	ไป หนึ่ง นาที	0.1975943
-0.4554777	จุด ห้า </s>
-0.4554777	จุด ห้า เท่า	0.3726237
-0.3305389	สอง ห้า </s>
-0.8309174	สอง ห้า เท่า	0
-0.4554777	สิบ ห้า วินาที	0.3726237
-0.4554777	สิบ ห้า เปอร์เซนต์	0.1975943
-0.1544477	หมายเลข ห้า </s>
-0.6532125	เจ็ด ห้า เท่า	0
-0.1544477	ไป ห้า วินาที	0.3726237
-0.1544477	<s> เข้า หน้า
-0.7663597	จุด เจ็ด ห้า	0
-0.9283068	<s> เซ็ต ความเร็ว	-0.02196269
-0.2297072	สอง เท่า </s>
-0.09691001	ห้า เท่า </s>
-0.1544477	ห้า เปอร์เซนต์ </s>
-1.074435	<s> เปิด โหมด	-0.02196269
-0.3546459	ตั้ง เป็น วิดีโอ	-0.2156473
-1.007488	<s> เพิ่ม ความเร็ว	-0.02196269
-0.9283068	<s> เลือก วิดีโอ	-0.02196269
-0.9283068	<s> เลื่อน วีดีโอ	-0.02196269
-0.8076602	<s> เล่น ตอน
-0.7068284	<s> เล่น วีดิโอ	-0.2156473
-0.8076602	<s> เล่น วีดีโอ
-0.3546459	<s> แสดง วิดีโอ	-0.2156473
-0.1544477	ที่ แสดง </s>
-0.4515559	<s> โกวาจี ผม
-0.1544477	รายการ โปรด </s>
-0.9283068	เปิด โหมด หมายเลข
-0.1760913	สาม ใน สี่	0
-0.1760913	หนึ่ง ใน สี่	0
-0.8948104	วีดีโอ ไป สาม	0.1975943
-0.4393327	วีดีโอ ไป สิบ	0.1975942
-0.7939786	วีดีโอ ไป หนึ่ง	0.08483419
-0.8948104	วีดีโอ ไป ห้า	0.1975943

\4-grams:
-0.2771085	ใน สี่ ของ ตอน	0.0319469
-0.7919733	<s> ลด ความเร็ว วีดีโอ	0
-0.7919733	<s> เซ็ต ความเร็ว วีดีโอ	0.02114412
-0.7919733	<s> เพิ่ม ความเร็ว วีดีโอ	0
-0.1249387	<s> ปรับ คุณภาพ วิดีโอ	0
-0.8791685	วีดีโอ ศูนย์ จุด สอง	0.0319469
-0.8791685	วีดีโอ ศูนย์ จุด หนึ่ง	0.0319469
-0.4259687	วีดีโอ ศูนย์ จุด ห้า	0.01580168
-0.8725104	วีดีโอ ศูนย์ จุด เจ็ด	0
-0.582074	วีดีโอ หนึ่ง จุด สอง	0
-0.2771085	สี่ ของ ตอน </s>
-1.06739	เล่น วีดิโอ ที่ สาม	0
-1.06739	เล่น วีดิโอ ที่ หนึ่ง	0
-0.2771085	ไป หนึ่ง นาที </s>
-0.1249387	ปรับ คุณภาพ วิดีโอ ระดับ
-0.1249387	ตั้ง เป็น วิดีโอ ทอป
-0.7919733	<s> เลือก วิดีโอ หมายเลข
-0.1249387	<s> แสดง วิดีโอ อันดับ
-0.2771085	สาม สิบ วินาที </s>
-0.2771085	ไป สิบ วินาที </s>
-0.2771085	สิบ ห้า วินาที </s>
-0.2771085	ไป ห้า วินาที </s>
-0.1249387	<s> เล่น วีดิโอ ที่	0
-0.2218488	ลด ความเร็ว วีดีโอ ศูนย์	0.3521825
-0.6750485	เซ็ต ความเร็ว วีดีโอ ศูนย์	0.6598431
-0.6750485	เซ็ต ความเร็ว วีดีโอ หนึ่ง	-0.1611848
-0.2218488	เพิ่ม ความเร็ว วีดีโอ ศูนย์	0.3521825
-0.06694679	<s> ย้อน วีดีโอ ไป	0.01580167
-0.7919733	<s> เลื่อน วีดีโอ ไป	0.007859223
-0.05115252	ความเร็ว วีดีโอ ศูนย์ จุด	0.02114412
-0.2771085	ศูนย์ จุด สอง ห้า	-0.1058345
-0.2297072	หนึ่ง จุด สอง ห้า	0
-0.1249387	ความเร็ว วีดีโอ สอง เท่า	0
-1.134336	วีดิโอ ที่ สาม ใน	0
-0.2771085	วีดีโอ ไป สาม สิบ	0.0319469
-0.2771085	ไป สาม สิบ วินาที	0.0319469
-0.5781385	วีดีโอ ไป สิบ วินาที	0.0319469
-0.5781385	วีดีโอ ไป สิบ ห้า	0.0319469
-0.1544477	สาม ใน สี่ ของ	0
-0.1544477	หนึ่ง ใน สี่ ของ	0
-0.2771085	ศูนย์ จุด หนึ่ง </s>
-1.435367	วีดิโอ ที่ หนึ่ง ใน	0
-0.5781385	ความเร็ว วีดีโอ หนึ่ง </s>
-0.5781385	ความเร็ว วีดีโอ หนึ่ง จุด	0
-0.4531997	วีดีโอ ไป หนึ่ง นาที	0.0319469
-0.4531997	ศูนย์ จุด ห้า </s>
-0.4531997	จุด สอง ห้า </s>
-0.7460831	จุด สอง ห้า เท่า	0
-0.2771085	ไป สิบ ห้า วินาที	0.0319469
-0.6532125	จุด เจ็ด ห้า เท่า	0
-0.2771085	วีดีโอ ไป ห้า วินาที	0.0319469
-0.7663597	ศูนย์ จุด เจ็ด ห้า	0
-0.1249387	วีดีโอ สอง เท่า </s>
-0.2771085	จุด ห้า เท่า </s>
-0.2771085	สิบ ห้า เปอร์เซนต์ </s>
-0.1249387	<s> ตั้ง เป็น วิดีโอ	0
-0.2771085	วิดีโอ ที่ แสดง </s>
-0.7919733	<s> เปิด โหมด หมายเลข
-0.1760913	ที่ สาม ใน สี่	0
-0.1760913	ที่ หนึ่ง ใน สี่	0
-0.7542297	ย้อน วีดีโอ ไป สิบ
-0.7542297	ย้อน วีดีโอ ไป หนึ่ง
-0.6750485	เลื่อน วีดีโอ ไป สิบ

\5-grams:
-0.2771085	สาม ใน สี่ ของ ตอน	0
-0.2771085	หนึ่ง ใน สี่ ของ ตอน	0
-0.9098234	ความเร็ว วีดีโอ ศูนย์ จุด สอง	0.112748
-0.9098234	ความเร็ว วีดีโอ ศูนย์ จุด หนึ่ง	0.112748
-0.4259687	ความเร็ว วีดีโอ ศูนย์ จุด ห้า	0.06045029
-0.8513663	ความเร็ว วีดีโอ ศูนย์ จุด เจ็ด	0
-0.582074	ความเร็ว วีดีโอ หนึ่ง จุด สอง	0
-0.3077634	ใน สี่ ของ ตอน </s>
-1.06739	<s> เล่น วีดิโอ ที่ สาม	0
-1.06739	<s> เล่น วีดิโอ ที่ หนึ่ง	0
-0.3077634	วีดีโอ ไป หนึ่ง นาที </s>
-0.1249387	<s> ปรับ คุณภาพ วิดีโอ ระดับ
-0.1249387	<s> ตั้ง เป็น วิดีโอ ทอป
-0.3077634	ไป สาม สิบ วินาที </s>
-0.3077634	วีดีโอ ไป สิบ วินาที </s>
-0.3077634	ไป สิบ ห้า วินาที </s>
-0.3077634	วีดีโอ ไป ห้า วินาที </s>
-0.2218488	<s> ลด ความเร็ว วีดีโอ ศูนย์	0
-0.7057034	<s> เซ็ต ความเร็ว วีดีโอ ศูนย์	0.112748
-0.7057034	<s> เซ็ต ความเร็ว วีดีโอ หนึ่ง	0.112748
-0.2218488	<s> เพิ่ม ความเร็ว วีดีโอ ศูนย์	0
-0.1249387	ลด ความเร็ว วีดีโอ ศูนย์ จุด
-0.3077634	เซ็ต ความเร็ว วีดีโอ ศูนย์ จุด	0
-0.1249387	เพิ่ม ความเร็ว วีดีโอ ศูนย์ จุด
-0.3077634	วีดีโอ ศูนย์ จุด สอง ห้า	0.112748
-0.2297072	วีดีโอ หนึ่ง จุด สอง ห้า	0
-1.134336	เล่น วีดิโอ ที่ สาม ใน	0
-0.3077634	วีดีโอ ไป สาม สิบ วินาที	0.112748
-0.1544477	ที่ สาม ใน สี่ ของ	0
-0.1544477	ที่ หนึ่ง ใน สี่ ของ	0
-0.3077634	วีดีโอ ศูนย์ จุด หนึ่ง </s>
-1.435367	เล่น วีดิโอ ที่ หนึ่ง ใน	0
-0.3077634	เซ็ต ความเร็ว วีดีโอ หนึ่ง จุด	0
-0.4838547	วีดีโอ ศูนย์ จุด ห้า </s>
-0.3077634	ศูนย์ จุด สอง ห้า </s>
-0.7460831	หนึ่ง จุด สอง ห้า เท่า	0
-0.3077634	วีดีโอ ไป สิบ ห้า วินาที	0.112748
-0.6532125	ศูนย์ จุด เจ็ด ห้า เท่า	0
-0.7663597	วีดีโอ ศูนย์ จุด เจ็ด ห้า	0
-0.1249387	ความเร็ว วีดีโอ สอง เท่า </s>
-0.1760913	วีดิโอ ที่ สาม ใน สี่	0
-0.1760913	วีดิโอ ที่ หนึ่ง ใน สี่	0
-0.7848846	<s> ย้อน วีดีโอ ไป สิบ
-0.7848846	<s> ย้อน วีดีโอ ไป หนึ่ง
-0.7057034	<s> เลื่อน วีดีโอ ไป สิบ

\6-grams:
-0.2771085	ที่ สาม ใน สี่ ของ ตอน	0
-0.2771085	ที่ หนึ่ง ใน สี่ ของ ตอน	0
-0.8513663	เซ็ต ความเร็ว วีดีโอ ศูนย์ จุด เจ็ด	0
-0.582074	เซ็ต ความเร็ว วีดีโอ หนึ่ง จุด สอง	0
-0.4662099	วีดีโอ ไป สาม สิบ วินาที </s>
-0.4662099	วีดีโอ ไป สิบ ห้า วินาที </s>
-0.1249387	<s> ลด ความเร็ว วีดีโอ ศูนย์ จุด
-0.4662099	<s> เซ็ต ความเร็ว วีดีโอ ศูนย์ จุด	0
-0.1249387	<s> เพิ่ม ความเร็ว วีดีโอ ศูนย์ จุด
-0.4662099	ความเร็ว วีดีโอ ศูนย์ จุด สอง ห้า	-0.2954698
-0.2297072	ความเร็ว วีดีโอ หนึ่ง จุด สอง ห้า	0
-1.134336	<s> เล่น วีดิโอ ที่ สาม ใน	0
-0.1544477	วีดิโอ ที่ สาม ใน สี่ ของ	0
-0.1544477	วีดิโอ ที่ หนึ่ง ใน สี่ ของ	0
-0.4662099	ความเร็ว วีดีโอ ศูนย์ จุด หนึ่ง </s>
-1.435367	<s> เล่น วีดิโอ ที่ หนึ่ง ใน	0
-0.4662099	<s> เซ็ต ความเร็ว วีดีโอ หนึ่ง จุด	0
-0.6423012	ความเร็ว วีดีโอ ศูนย์ จุด ห้า </s>
-0.4662099	วีดีโอ ศูนย์ จุด สอง ห้า </s>
-0.7460831	วีดีโอ หนึ่ง จุด สอง ห้า เท่า	0
-0.6532125	วีดีโอ ศูนย์ จุด เจ็ด ห้า เท่า	0
-0.7663597	ความเร็ว วีดีโอ ศูนย์ จุด เจ็ด ห้า	0
-0.1760913	เล่น วีดิโอ ที่ สาม ใน สี่	0
-0.1760913	เล่น วีดิโอ ที่ หนึ่ง ใน สี่	0

\7-grams:
-0.2771085	วีดิโอ ที่ สาม ใน สี่ ของ ตอน	0
-0.2771085	วีดิโอ ที่ หนึ่ง ใน สี่ ของ ตอน	0
-0.8513663	<s> เซ็ต ความเร็ว วีดีโอ ศูนย์ จุด เจ็ด	0
-0.582074	<s> เซ็ต ความเร็ว วีดีโอ หนึ่ง จุด สอง	0
-0.2297072	เซ็ต ความเร็ว วีดีโอ หนึ่ง จุด สอง ห้า	0
-0.1544477	เล่น วีดิโอ ที่ สาม ใน สี่ ของ	0
-0.1544477	เล่น วีดิโอ ที่ หนึ่ง ใน สี่ ของ	0
-0.1760913	ความเร็ว วีดีโอ ศูนย์ จุด สอง ห้า </s>
-0.7460831	ความเร็ว วีดีโอ หนึ่ง จุด สอง ห้า เท่า	0
-0.6532125	ความเร็ว วีดีโอ ศูนย์ จุด เจ็ด ห้า เท่า	0
-0.7663597	เซ็ต ความเร็ว วีดีโอ ศูนย์ จุด เจ็ด ห้า	0
-0.1760913	<s> เล่น วีดิโอ ที่ สาม ใน สี่	0
-0.1760913	<s> เล่น วีดิโอ ที่ หนึ่ง ใน สี่	0

\8-grams:
-0.2771085	เล่น วีดิโอ ที่ สาม ใน สี่ ของ ตอน	0
-0.2771085	เล่น วีดิโอ ที่ หนึ่ง ใน สี่ ของ ตอน	0
-0.2297072	<s> เซ็ต ความเร็ว วีดีโอ หนึ่ง จุด สอง ห้า	0
-0.1544477	<s> เล่น วีดิโอ ที่ สาม ใน สี่ ของ	0
-0.1544477	<s> เล่น วีดิโอ ที่ หนึ่ง ใน สี่ ของ	0
-0.7460831	เซ็ต ความเร็ว วีดีโอ หนึ่ง จุด สอง ห้า เท่า	0
-0.6532125	เซ็ต ความเร็ว วีดีโอ ศูนย์ จุด เจ็ด ห้า เท่า	0
-0.7663597	<s> เซ็ต ความเร็ว วีดีโอ ศูนย์ จุด เจ็ด ห้า	0

\9-grams:
-0.2771085	<s> เล่น วีดิโอ ที่ สาม ใน สี่ ของ ตอน	-99
-0.2771085	<s> เล่น วีดิโอ ที่ หนึ่ง ใน สี่ ของ ตอน	-99
-0.7460831	<s> เซ็ต ความเร็ว วีดีโอ หนึ่ง จุด สอง ห้า เท่า	-99
-0.6532125	<s> เซ็ต ความเร็ว วีดีโอ ศูนย์ จุด เจ็ด ห้า เท่า	-99

\10-grams:
0	<s> เล่น วีดิโอ ที่ สาม ใน สี่ ของ ตอน </s>
0	<s> เล่น วีดิโอ ที่ หนึ่ง ใน สี่ ของ ตอน </s>
0	<s> เซ็ต ความเร็ว วีดีโอ หนึ่ง จุด สอง ห้า เท่า </s>
0	<s> เซ็ต ความเร็ว วีดีโอ ศูนย์ จุด เจ็ด ห้า เท่า </s>

\end\
